{"layers": [{"batch_input_shape": [null, 200], "class_name": "InputLayer"}, {"class_name": "Reshape", "target_shape": [200, 1]}, {"class_name": "Conv1D", "strides": 1, "kernel_size": 3, "padding": "valid", "activation": "relu", "weights": [[[-0.4840599000453949, 0.5285488367080688, -0.05083177983760834, -0.5432313084602356], [-0.5895174145698547, -0.05779825523495674, 0.36396268010139465, 0.5143715739250183], [-0.46003615856170654, 0.23427040874958038, 0.5701379179954529, 0.6494953036308289]], [0.14269791543483734, 0.05588478222489357, 0.092086061835289, 0.10666674375534058]]}, {"class_name": "MaxPooling1D", "pool_size": 2, "strides": 2}, {"class_name": "Conv1D", "strides": 1, "kernel_size": 3, "padding": "valid", "activation": "relu", "weights": [[[0.05070076510310173, -0.046523310244083405, 0.05043714493513107, 0.2124038189649582], [-0.1854924112558365, -0.04200943186879158, -0.2603381276130676, -0.07648944854736328], [0.10170123726129532, 0.06616229563951492, 0.3284209370613098, -0.3658062815666199], [0.4303944408893585, 0.023227715864777565, 0.4090462028980255, 0.3451911211013794], [-0.1647472381591797, -0.10545630753040314, -0.5745009183883667, 0.5043416619300842], [0.24570222198963165, -0.5621382594108582, 0.034715890884399414, 0.10381970554590225], [-0.0426127053797245, -0.229532852768898, 0.5186734199523926, 0.04051262512803078], [0.4314943850040436, -0.4517403244972229, 0.12277770787477493, 0.5571728348731995], [0.36536362767219543, 0.15128721296787262, -0.2002004086971283, -0.008321637287735939], [0.08409325033426285, -0.3458132743835449, 0.4787062406539917, 0.09105221182107925], [0.30498623847961426, 0.34250354766845703, 0.236840158700943, -0.30038610100746155], [0.04371104761958122, -0.3176581859588623, -0.21177968382835388, -0.3391685485839844]], [0.025839881971478462, 0.04781483858823776, 0.09537284076213837, 0.11627209931612015]]}, {"class_name": "MaxPooling1D", "pool_size": 2, "strides": 2}, {"class_name": "Conv1D", "strides": 1, "kernel_size": 3, "padding": "valid", "activation": "relu", "weights": [[[0.33509066700935364, -0.12113088369369507, -0.15786433219909668, 0.1913672834634781, -0.12661924958229065, 0.2931719422340393, 0.18131212890148163, -0.001231461763381958], [0.017332088202238083, -0.12903989851474762, 0.24654865264892578, 0.22537976503372192, 0.35878339409828186, 0.3008783757686615, 0.13786187767982483, -0.2544359862804413], [0.1541983038187027, 0.09963328391313553, -0.3527557849884033, -0.4337841868400574, -0.061792291700839996, -0.09285420179367065, 0.23108063638210297, -0.3334985375404358], [-0.22684043645858765, 0.016576535999774933, -0.2626422047615051, -0.0758865550160408, 0.10455983877182007, 0.17755043506622314, 0.10220064967870712, -0.15378281474113464], [0.2830311059951782, 0.17660927772521973, -0.2935432195663452, 0.423806369304657, 0.17669637501239777, -0.24871252477169037, 0.392193078994751, -0.11723878979682922], [-0.1533374786376953, -0.05647757276892662, -0.3883064091205597, 0.010314817540347576, -0.11844831705093384, 0.08564413338899612, 0.07200761884450912, 0.19605380296707153], [0.4251698851585388, 0.3331987261772156, -0.4054097533226013, -0.001066087861545384, 0.3756552040576935, 0.3311336040496826, 0.27921244502067566, -0.331787109375], [-0.17217622697353363, -0.29100799560546875, 0.058865636587142944, 0.3985110819339752, 0.20771506428718567, -0.19079579412937164, -0.24631120264530182, 0.15210062265396118], [0.0367288701236248, 0.2366188019514084, 0.2812391519546509, -0.2990649938583374, -0.24670028686523438, -0.033391352742910385, 0.20636318624019623, -0.1072750985622406], [0.1889752447605133, -0.09708916395902634, -0.28488555550575256, 0.27968165278434753, -0.13229252398014069, -0.030635718256235123, 0.379269540309906, -0.15269151329994202], [0.005057277157902718, 0.1762332320213318, -0.2655843496322632, 0.14906752109527588, -0.24160797894001007, -0.06073120981454849, -0.019634295254945755, -0.33066707849502563], [0.4248691201210022, -0.41228383779525757, 0.05125686526298523, 0.5036030411720276, 0.3677239716053009, -0.3527543544769287, -0.39064469933509827, -0.05824717879295349]], [0.04794866219162941, 0.06174105778336525, 0.0, 0.0894727110862732, 0.11374015361070633, -0.012600164860486984, -0.033149272203445435, 0.0]]}, {"class_name": "MaxPooling1D", "pool_size": 2, "strides": 2}, {"class_name": "Flatten"}, {"class_name": "Dense", "units": 1, "activation": "sigmoid", "weights": [[[-0.20520591735839844], [0.0902552455663681], [-0.05709270387887955], [-0.28817877173423767], [-0.001925466232933104], [-0.032178908586502075], [0.05498724430799484], [0.0543399304151535], [-0.1795065999031067], [0.20146141946315765], [-0.10033531486988068], [-0.23777593672275543], [-0.22432437539100647], [0.16247498989105225], [-0.015540155582129955], [0.1504797339439392], [0.07415560632944107], [0.14642636477947235], [0.02295398712158203], [-0.071273073554039], [-0.2953946590423584], [0.13373878598213196], [0.03055865690112114], [0.07479619979858398], [0.08885566890239716], [0.2122006118297577], [0.1305486261844635], [-0.2247936874628067], [-0.05475660786032677], [-0.14093086123466492], [0.16523635387420654], [-0.08406882733106613], [-0.14694297313690186], [0.17443865537643433], [0.1623874008655548], [-0.2676195800304413], [-0.11623023450374603], [-0.06021450087428093], [-0.1567363291978836], [0.15779384970664978], [-0.20452773571014404], [0.0786905437707901], [0.1499503254890442], [0.048008594661951065], [-0.15650959312915802], [0.11907650530338287], [-0.0975203886628151], [0.1348554790019989], [-0.09977360814809799], [0.09113837778568268], [0.016934111714363098], [-0.2116783857345581], [-0.2503637671470642], [-0.1044890433549881], [0.005813829600811005], [-0.004666164517402649], [-0.11674331873655319], [-0.0987180694937706], [-0.17179158329963684], [-0.21457050740718842], [-0.0866655707359314], [0.10651632398366928], [0.11089546978473663], [-0.16739176213741302], [-0.050894614309072495], [0.037680674344301224], [-0.1599467396736145], [-0.28731289505958557], [-0.15324591100215912], [0.11675307899713516], [0.18636895716190338], [0.016339004039764404], [-0.06290405243635178], [0.01631191186606884], [-0.1587318331003189], [-0.20688685774803162], [-0.23019389808177948], [0.22368822991847992], [0.2083081156015396], [-0.14502987265586853], [0.2095533311367035], [0.19137373566627502], [-0.1713060587644577], [-0.12298493087291718], [-0.2541336417198181], [-0.08007923513650894], [0.018068628385663033], [0.0063244253396987915], [0.13781055808067322], [0.1376991868019104], [-0.022175878286361694], [-0.0381067655980587], [-0.018275100737810135], [0.015693802386522293], [-0.07078457623720169], [0.03236722946166992], [-0.014761174097657204], [0.07218625396490097], [-0.03356659412384033], [-0.04609758406877518], [-0.33496004343032837], [-0.027801545336842537], [0.022046087309718132], [-0.16221757233142853], [0.0025153346359729767], [0.04201176017522812], [-0.1453154981136322], [-0.1941979080438614], [-0.2679366171360016], [0.21438433229923248], [0.13661998510360718], [0.08861342072486877], [-0.11694648116827011], [0.15431149303913116], [-0.09339320659637451], [-0.17679773271083832], [-0.043748896569013596], [-0.1000087633728981], [-0.03931024670600891], [0.08197945356369019], [0.13884498178958893], [0.22069750726222992], [-0.15811873972415924], [-0.21229036152362823], [0.04674394056200981], [-0.11229145526885986], [0.1667535901069641], [0.07104060053825378], [0.0778602659702301], [0.005573962815105915], [-0.15477164089679718], [-0.028109146282076836], [-0.29622241854667664], [-0.09672513604164124], [0.14194436371326447], [0.1130780279636383], [0.12399040162563324], [0.11219591647386551], [-0.16109460592269897], [-0.20492759346961975], [-0.15932387113571167], [-0.07262661308050156], [0.25001728534698486], [-0.11240769177675247], [0.2036595344543457], [-0.08990905433893204], [-0.16701292991638184], [-0.016755498945713043], [-0.013535548001527786], [-0.20805513858795166], [0.036669161170721054], [0.13721302151679993], [-0.09718821197748184], [0.148597851395607], [0.05072109401226044], [-0.11116254329681396], [-0.08617135137319565], [0.061380475759506226], [-0.19331713020801544], [-0.12098561227321625], [-0.0692305639386177], [0.05347944051027298], [-0.08963992446660995], [0.005211560521274805], [-0.07192612439393997], [-0.1655031144618988], [-0.14033210277557373], [-0.07380027323961258], [-0.03658740222454071], [-0.05895790830254555], [-0.08925250917673111], [-0.06552855670452118], [-0.047844141721725464], [-0.23000679910182953], [0.09426073729991913], [0.0209663063287735], [-0.06696740537881851], [-0.1386944204568863], [0.16987085342407227], [0.05769585445523262], [-0.055746857076883316], [-0.06884941458702087], [0.0969533771276474], [0.07220688462257385]], [-0.07886314392089844]]}]}