{"layers": [{"batch_input_shape": [null, 300], "class_name": "InputLayer"}, {"class_name": "Reshape", "target_shape": [300, 1]}, {"class_name": "Conv1D", "strides": 1, "kernel_size": 3, "padding": "valid", "activation": "relu", "weights": [[[0.7143144011497498, 0.15732698142528534, -0.35626208782196045, -0.6937966346740723], [0.3658519685268402, 0.8535926938056946, -0.12125071883201599, -0.06602228432893753], [0.20148713886737823, 0.8803657293319702, -0.689943790435791, -0.44507527351379395]], [0.10490895807743073, 0.1653035283088684, 0.21335044503211975, 0.14980238676071167]]}, {"class_name": "MaxPooling1D", "pool_size": 2, "strides": 2}, {"class_name": "Conv1D", "strides": 1, "kernel_size": 3, "padding": "valid", "activation": "relu", "weights": [[[-0.3094561994075775, 0.7382410168647766, -0.8127522468566895, -0.5397538542747498], [-0.37376779317855835, 0.41178637742996216, -0.9751439094543457, -0.9379851222038269], [0.4116969704627991, -0.22232939302921295, -0.06837275624275208, 0.4887388050556183], [-0.023054931312799454, -0.11892038583755493, 0.7333133220672607, 0.2263215035200119], [0.45665982365608215, 0.6473407745361328, -0.5773708820343018, -0.8669657707214355], [-0.42314156889915466, 0.33829465508461, -0.8341593742370605, -0.7549272775650024], [0.23043248057365417, -0.557745099067688, 0.12721095979213715, 0.5222702026367188], [-0.2921530306339264, 0.0764121413230896, 0.4555628299713135, 0.63297039270401], [0.30559805035591125, -0.08310399949550629, -0.4405592679977417, -0.09247667342424393], [-0.1748884916305542, -0.2818714380264282, 0.28643369674682617, -0.05168931186199188], [-0.11022762209177017, 0.03659648820757866, 0.000774054613430053, -0.1476251780986786], [-0.3056294322013855, 0.3458749055862427, -0.14148551225662231, 0.5898633599281311]], [-0.05141646787524223, -0.10645583271980286, 0.2764309048652649, 0.16674093902111053]]}, {"class_name": "MaxPooling1D", "pool_size": 2, "strides": 2}, {"class_name": "Conv1D", "strides": 1, "kernel_size": 3, "padding": "valid", "activation": "relu", "weights": [[[0.028715601190924644, -0.1189543604850769, -0.44602471590042114, -0.16463150084018707, 0.10686171799898148, -0.31822678446769714, 0.04970541223883629, 0.1544370949268341], [0.21753953397274017, 0.5941649675369263, -0.41546812653541565, 0.2784348428249359, 0.018261386081576347, -0.37594905495643616, 0.2483491748571396, 0.3122796416282654], [-0.43809208273887634, 0.6961594223976135, -0.014208168722689152, 0.12775301933288574, 0.2954885959625244, 0.6218439936637878, 0.1164604052901268, 0.01726352609694004], [-0.5175188779830933, 0.20387521386146545, -0.05167604982852936, -0.4113369882106781, -0.01102316752076149, 0.1547374278306961, 0.5049694180488586, -0.17149756848812103], [0.2630869448184967, 0.032997582107782364, 0.13155926764011383, -0.1447833925485611, 0.6047986149787903, -0.35994377732276917, 0.2618994414806366, -0.00027697786572389305], [0.6046228408813477, -0.0363098680973053, 0.12433618307113647, 0.4983471632003784, 0.6836450695991516, 0.19476762413978577, -0.34824898838996887, 0.6948472857475281], [0.17310580611228943, 0.014466078951954842, 0.7534487843513489, -0.04366599768400192, 0.4031173288822174, 0.04175930097699165, 0.1794336885213852, 0.083548903465271], [0.38974499702453613, 0.30414119362831116, -0.060786452144384384, -0.11086879670619965, 0.36888930201530457, 0.40362635254859924, -0.42649275064468384, -0.16216620802879333], [0.12095996737480164, -0.03548551723361015, 0.05612075701355934, -0.14208734035491943, 0.22846277058124542, 0.009680022485554218, 0.15975776314735413, 0.5362895131111145], [0.47010692954063416, 0.5405129194259644, -0.332440048456192, 0.6034828424453735, 0.6923956871032715, -0.3483550548553467, -0.06997988373041153, -0.014403445646166801], [0.8249210119247437, 0.13632135093212128, 0.22200584411621094, 0.3800252676010132, 0.14686903357505798, 0.7332301139831543, 0.3207223117351532, 0.4758470356464386], [-0.19175392389297485, -0.163041889667511, 0.6374174952507019, 0.2848961055278778, -0.23176667094230652, 0.6582725048065186, -0.3841629922389984, 0.031419333070516586]], [-0.1308956742286682, -0.0808262750506401, 0.026791885495185852, -0.1429903656244278, -0.0624309666454792, 0.013443732634186745, -0.008067931048572063, -0.09940151125192642]]}, {"class_name": "MaxPooling1D", "pool_size": 2, "strides": 2}, {"class_name": "Flatten"}, {"class_name": "Dense", "units": 1, "activation": "sigmoid", "weights": [[[0.014123154804110527], [-0.04312382638454437], [-0.23180672526359558], [-0.006596237886697054], [-0.01927199400961399], [-0.11734060198068619], [0.28384584188461304], [-0.20800235867500305], [-0.1411656141281128], [-0.09906637668609619], [-0.15462559461593628], [-0.16666126251220703], [-0.24777010083198547], [-0.04065718874335289], [-0.13240911066532135], [-0.4014858603477478], [-0.4264191687107086], [-0.11465573310852051], [-0.00726744532585144], [-0.34561294317245483], [-0.16695423424243927], [-0.18382710218429565], [-0.22992517054080963], [-0.35097241401672363], [-0.08301874995231628], [0.06817937642335892], [-0.00702655827626586], [-0.31369975209236145], [0.017277976498007774], [0.018082669004797935], [0.09739787876605988], [-0.15631426870822906], [-0.04933200776576996], [0.15797923505306244], [-0.12429873645305634], [-0.12110206484794617], [0.020990891382098198], [-0.23618543148040771], [0.07710201293230057], [-0.1840459108352661], [-0.19447912275791168], [-0.0411934070289135], [-0.17096923291683197], [-0.023352228105068207], [-0.06896092742681503], [-0.26448914408683777], [-0.23852354288101196], [0.09694987535476685], [-0.21866825222969055], [-0.3085562288761139], [-0.08692923188209534], [-0.24359621107578278], [-0.28070443868637085], [-0.13484074175357819], [-0.2302110344171524], [-0.08246996998786926], [-0.17805038392543793], [-0.26931941509246826], [-0.08060157299041748], [-0.5124820470809937], [-0.25633737444877625], [0.0676705464720726], [-0.09662825614213943], [-0.453782320022583], [-0.24031443893909454], [0.04172832518815994], [0.18804484605789185], [-0.3374345898628235], [0.029570747166872025], [0.15219292044639587], [-0.01066870242357254], [-0.33444735407829285], [-0.17909450829029083], [0.11150355637073517], [0.025524098426103592], [-0.34722185134887695], [0.27193760871887207], [0.08673735707998276], [0.024271009489893913], [-0.1508290320634842], [-0.2119491696357727], [-0.08627336472272873], [-0.22794650495052338], [-0.2642052173614502], [0.01111640501767397], [-0.28332439064979553], [0.3490270674228668], [-0.12604394555091858], [-0.15868982672691345], [-0.4618687629699707], [-0.26324227452278137], [-0.06648572534322739], [-0.32461869716644287], [-0.3489806652069092], [-0.07408452033996582], [-0.28866860270500183], [-0.27157294750213623], [-0.3367115259170532], [-0.46128004789352417], [-0.3891412913799286], [-0.1374964863061905], [-0.3288019299507141], [0.08243818581104279], [-0.38512977957725525], [-0.3444155156612396], [-0.37804391980171204], [-0.09175005555152893], [-0.6019699573516846], [-0.44267740845680237], [-0.3650636374950409], [-0.1217874214053154], [-0.4879646897315979], [-0.4156467318534851], [-0.34444209933280945], [-0.18476399779319763], [-0.34848353266716003], [-0.3609845042228699], [-0.19190910458564758], [-0.28791776299476624], [-0.5007982850074768], [-0.05136673152446747], [-0.05337785184383392], [-0.2255149483680725], [-0.3771883547306061], [-0.18510153889656067], [-0.09426909685134888], [0.09859099984169006], [-0.14314182102680206], [-0.43779781460762024], [-0.28715482354164124], [-0.1063084751367569], [-0.49892857670783997], [-0.29722434282302856], [-0.05929221585392952], [0.28085777163505554], [-0.3537938892841339], [-0.04240339994430542], [-0.1640433520078659], [-0.2672925591468811], [-0.11723673343658447], [-0.14558713138103485], [-0.27792397141456604], [-0.0074771009385585785], [-0.15397685766220093], [0.34519287943840027], [-0.2633092403411865], [-0.12184802442789078], [0.04931854084134102], [-0.23823465406894684], [-0.12933014333248138], [0.06157321855425835], [0.2571553885936737], [0.0840650349855423], [-0.17143769562244415], [-0.14418955147266388], [-0.14968539774417877], [-0.25292691588401794], [0.0002050419570878148], [-0.15640120208263397], [0.040701426565647125], [-0.16975121200084686], [-0.31813040375709534], [0.15350081026554108], [-0.30893078446388245], [-0.06519617885351181], [-0.17439895868301392], [-0.05849732458591461], [-0.01664869859814644], [-0.2584409713745117], [-0.34434792399406433], [-0.12451586127281189], [-0.18764089047908783], [-0.36964306235313416], [-0.0895693302154541], [-0.09809665381908417], [-0.3138175308704376], [-0.41088128089904785], [-0.16249483823776245], [0.039879653602838516], [-0.2572777569293976], [-0.17266887426376343], [0.17753785848617554], [-0.2872824966907501], [-0.20456147193908691], [0.4113612174987793], [-0.19332297146320343], [0.2444978803396225], [0.10204488784074783], [0.03561823070049286], [0.22280342876911163], [-0.15510718524456024], [-0.05569279193878174], [-0.0011306408559903502], [-0.1024380624294281], [0.1830182522535324], [-0.11302781105041504], [-0.12594567239284515], [0.10447712987661362], [-0.25231027603149414], [-0.04060289263725281], [0.3836756646633148], [0.076728455722332], [0.31761878728866577], [0.44631028175354004], [0.12452828139066696], [0.20720897614955902], [-0.11414944380521774], [0.49937787652015686], [0.44849154353141785], [0.22529450058937073], [0.28780290484428406], [0.437820702791214], [0.04562518000602722], [0.3199766278266907], [-0.026509683579206467], [0.5263532996177673], [0.14363569021224976], [0.27608567476272583], [0.24005280435085297], [0.06557165086269379], [0.03976907581090927], [0.28004544973373413], [0.03055114485323429], [-0.01568162441253662], [0.12060463428497314], [0.10092666000127792], [0.07466234266757965], [-0.052306167781353], [-0.003909662365913391], [0.28203582763671875], [0.18789146840572357], [-0.046636439859867096], [0.11728614568710327], [0.04616463929414749], [0.17248721420764923], [-0.0868363082408905], [0.03283551707863808], [0.3411448001861572], [0.1150335744023323], [0.04819473624229431], [-0.12052886933088303], [0.1819583624601364], [0.21204499900341034], [0.11418700218200684], [0.11817164719104767], [0.21951155364513397], [0.0031074390280991793], [0.07321731746196747], [0.06220041215419769], [0.10998234897851944], [0.11590099334716797], [-0.11896830052137375], [0.19295400381088257], [0.308494508266449], [0.054695431143045425], [0.1425662636756897], [0.07966573536396027], [0.31360337138175964], [0.21231381595134735], [-0.08325958997011185], [0.18016967177391052], [0.21331889927387238], [0.12457246333360672], [0.08809037506580353], [-0.007093802094459534], [0.07352336496114731], [0.21663598716259003], [0.11637088656425476], [0.11880442500114441], [0.36945515871047974], [0.2075289785861969], [0.048462092876434326], [0.022906169295310974], [0.28827181458473206], [0.12613260746002197], [-0.10400157421827316], [0.24568480253219604], [0.3182666301727295], [0.09466622024774551], [-0.1266898214817047]], [0.16175173223018646]]}]}